<?xml version="1.0"?>
<opencv_storage>
<cascade>
  <stageType>BOOST</stageType>
  <featureType>HAAR</featureType>
  <height>50</height>
  <width>50</width>
  <stageParams>
    <boostType>GAB</boostType>
    <minHitRate>9.9500000476837158e-01</minHitRate>
    <maxFalseAlarm>5.0000000000000000e-01</maxFalseAlarm>
    <weightTrimRate>9.4999998807907104e-01</weightTrimRate>
    <maxDepth>1</maxDepth>
    <maxWeakCount>100</maxWeakCount></stageParams>
  <featureParams>
    <maxCatCount>0</maxCatCount>
    <featSize>1</featSize>
    <mode>BASIC</mode></featureParams>
  <stageNum>6</stageNum>
  <stages>
    <!-- stage 0 -->
    <_>
      <maxWeakCount>3</maxWeakCount>
      <stageThreshold>-1.0634323358535767e+00</stageThreshold>
      <weakClassifiers>
        <_>
          <internalNodes>
            0 -1 2 1.3245707750320435e-01</internalNodes>
          <leafValues>
            -9.8552656173706055e-01 9.7221034765243530e-01</leafValues></_>
        <_>
          <internalNodes>
            0 -1 4 -5.1496386528015137e-02</internalNodes>
          <leafValues>
            9.7549563646316528e-01 -9.0576177835464478e-01</leafValues></_>
        <_>
          <internalNodes>
            0 -1 7 -2.0110240578651428e-01</internalNodes>
          <leafValues>
            8.2785588502883911e-01 -9.0974259376525879e-01</leafValues></_></weakClassifiers></_>
    <!-- stage 1 -->
    <_>
      <maxWeakCount>3</maxWeakCount>
      <stageThreshold>-1.0516554117202759e+00</stageThreshold>
      <weakClassifiers>
        <_>
          <internalNodes>
            0 -1 1 5.0685651600360870e-02</internalNodes>
          <leafValues>
            -9.7481566667556763e-01 9.6500325202941895e-01</leafValues></_>
        <_>
          <internalNodes>
            0 -1 12 3.2410327345132828e-02</internalNodes>
          <leafValues>
            -9.5690685510635376e-01 9.2605292797088623e-01</leafValues></_>
        <_>
          <internalNodes>
            0 -1 3 -3.0819144099950790e-02</internalNodes>
          <leafValues>
            8.8006705045700073e-01 -9.2848998308181763e-01</leafValues></_></weakClassifiers></_>
    <!-- stage 2 -->
    <_>
      <maxWeakCount>2</maxWeakCount>
      <stageThreshold>-1.0682309418916702e-01</stageThreshold>
      <weakClassifiers>
        <_>
          <internalNodes>
            0 -1 15 1.2002978473901749e-02</internalNodes>
          <leafValues>
            -9.8199409246444702e-01 9.0778815746307373e-01</leafValues></_>
        <_>
          <internalNodes>
            0 -1 10 -1.1839170008897781e-02</internalNodes>
          <leafValues>
            8.7517100572586060e-01 -9.6083444356918335e-01</leafValues></_></weakClassifiers></_>
    <!-- stage 3 -->
    <_>
      <maxWeakCount>2</maxWeakCount>
      <stageThreshold>-1.3960649073123932e-01</stageThreshold>
      <weakClassifiers>
        <_>
          <internalNodes>
            0 -1 0 -1.2627584859728813e-02</internalNodes>
          <leafValues>
            8.6334633827209473e-01 -9.7077947854995728e-01</leafValues></_>
        <_>
          <internalNodes>
            0 -1 9 3.5567295271903276e-03</internalNodes>
          <leafValues>
            -9.7678303718566895e-01 8.3117300271987915e-01</leafValues></_></weakClassifiers></_>
    <!-- stage 4 -->
    <_>
      <maxWeakCount>3</maxWeakCount>
      <stageThreshold>-1.0138490200042725e+00</stageThreshold>
      <weakClassifiers>
        <_>
          <internalNodes>
            0 -1 11 -5.5272076278924942e-03</internalNodes>
          <leafValues>
            8.5741323232650757e-01 -9.5244872570037842e-01</leafValues></_>
        <_>
          <internalNodes>
            0 -1 8 1.3102803379297256e-02</internalNodes>
          <leafValues>
            -8.8960081338882446e-01 8.8156819343566895e-01</leafValues></_>
        <_>
          <internalNodes>
            0 -1 14 -1.9627645611763000e-02</internalNodes>
          <leafValues>
            8.2820051908493042e-01 -8.4491258859634399e-01</leafValues></_></weakClassifiers></_>
    <!-- stage 5 -->
    <_>
      <maxWeakCount>3</maxWeakCount>
      <stageThreshold>-1.1566883325576782e+00</stageThreshold>
      <weakClassifiers>
        <_>
          <internalNodes>
            0 -1 13 7.5857400894165039e-02</internalNodes>
          <leafValues>
            -9.7123277187347412e-01 8.5617703199386597e-01</leafValues></_>
        <_>
          <internalNodes>
            0 -1 5 2.4643911048769951e-02</internalNodes>
          <leafValues>
            -9.4058042764663696e-01 7.5944077968597412e-01</leafValues></_>
        <_>
          <internalNodes>
            0 -1 6 -1.1047404259443283e-02</internalNodes>
          <leafValues>
            7.5512486696243286e-01 -8.5997992753982544e-01</leafValues></_></weakClassifiers></_></stages>
  <features>
    <_>
      <rects>
        <_>
          0 16 4 19 -1.</_>
        <_>
          2 16 2 19 2.</_></rects>
      <tilted>0</tilted></_>
    <_>
      <rects>
        <_>
          2 5 14 20 -1.</_>
        <_>
          2 5 7 10 2.</_>
        <_>
          9 15 7 10 2.</_></rects>
      <tilted>0</tilted></_>
    <_>
      <rects>
        <_>
          3 13 27 23 -1.</_>
        <_>
          12 13 9 23 3.</_></rects>
      <tilted>0</tilted></_>
    <_>
      <rects>
        <_>
          3 31 18 14 -1.</_>
        <_>
          3 31 9 7 2.</_>
        <_>
          12 38 9 7 2.</_></rects>
      <tilted>0</tilted></_>
    <_>
      <rects>
        <_>
          5 18 10 32 -1.</_>
        <_>
          5 18 5 16 2.</_>
        <_>
          10 34 5 16 2.</_></rects>
      <tilted>0</tilted></_>
    <_>
      <rects>
        <_>
          7 2 14 14 -1.</_>
        <_>
          7 2 7 7 2.</_>
        <_>
          14 9 7 7 2.</_></rects>
      <tilted>0</tilted></_>
    <_>
      <rects>
        <_>
          8 48 33 1 -1.</_>
        <_>
          19 48 11 1 3.</_></rects>
      <tilted>0</tilted></_>
    <_>
      <rects>
        <_>
          11 4 39 43 -1.</_>
        <_>
          24 4 13 43 3.</_></rects>
      <tilted>0</tilted></_>
    <_>
      <rects>
        <_>
          12 28 12 10 -1.</_>
        <_>
          12 28 6 5 2.</_>
        <_>
          18 33 6 5 2.</_></rects>
      <tilted>0</tilted></_>
    <_>
      <rects>
        <_>
          12 48 30 2 -1.</_>
        <_>
          12 49 30 1 2.</_></rects>
      <tilted>0</tilted></_>
    <_>
      <rects>
        <_>
          15 0 18 4 -1.</_>
        <_>
          15 2 18 2 2.</_></rects>
      <tilted>0</tilted></_>
    <_>
      <rects>
        <_>
          15 11 6 10 -1.</_>
        <_>
          15 11 3 5 2.</_>
        <_>
          18 16 3 5 2.</_></rects>
      <tilted>0</tilted></_>
    <_>
      <rects>
        <_>
          25 14 6 21 -1.</_>
        <_>
          25 21 6 7 3.</_></rects>
      <tilted>0</tilted></_>
    <_>
      <rects>
        <_>
          26 8 8 33 -1.</_>
        <_>
          26 19 8 11 3.</_></rects>
      <tilted>0</tilted></_>
    <_>
      <rects>
        <_>
          45 4 2 42 -1.</_>
        <_>
          45 18 2 14 3.</_></rects>
      <tilted>0</tilted></_>
    <_>
      <rects>
        <_>
          46 16 4 22 -1.</_>
        <_>
          48 16 2 22 2.</_></rects>
      <tilted>0</tilted></_></features></cascade>
</opencv_storage>
